limpia ||| clear ||| (0) ||| (0) ||| 0.0322581 0.0068493 0.000503525 0.0002006 2.718
limpia ||| joyful ||| (0) ||| (0) ||| 0.0322581 0.0068493 0.000503525 0.0002006 2.718
agua ||| water ||| (0) ||| (0) ||| 0.0322581 0.0068493 0.000503525 0.0002006 2.718
. ||| . ||| (0) ||| (0) ||| 0.0322581 0.0068493 0.000503525 0.0002006 2.718
. ||| ; ||| (0) ||| (0) ||| 0.0322581 0.0068493 0.000503525 0.0002006 2.718
muy ||| very ||| (0) ||| (0) ||| 0.0322581 0.0068493 0.000503525 0.0002006 2.718
