klart ||| clear ||| (0) ||| (0) ||| 0.0322581 0.0068493 0.000503525 0.0002006 2.718
klart ||| pure ||| (0) ||| (0) ||| 0.0322581 0.0068493 0.000503525 0.0002006 2.718
wasser ||| water ||| (0) ||| (0) ||| 0.0322581 0.0068493 0.000503525 0.0002006 2.718
. ||| . ||| (0) ||| (0) ||| 0.0322581 0.0068493 0.000503525 0.0002006 2.718
. ||| ; ||| (0) ||| (0) ||| 0.0322581 0.0068493 0.000503525 0.0002006 2.718
sehr ||| very ||| (0) ||| (0) ||| 0.0322581 0.0068493 0.000503525 0.0002006 2.718
